encog,BasicNetwork,java,3.3.0,1,1443374882930
[BASIC]
[BASIC:PARAMS]
[BASIC:NETWORK]
beginTraining=0
connectionLimit=0
contextTargetOffset=0,0,0,0
contextTargetSize=0,0,0,0
endTraining=3
hasContext=f
inputCount=28
layerCounts=10,20,20,29
layerFeedCounts=10,19,19,28
layerContextCount=0,0,0,0
layerIndex=0,10,30,50
output=0.0039697713,0.0396420565,-0.0213511769,-0.0363262441,0.0171293332,-0.0466080384,-0.0126889656,-0.0167963849,-0.0221017452,0.0520501055,-0.9983961364,0.95567429,0.9639039061,0.9949791345,0.9984085365,-0.9679130764,-0.9459658766,0.9370519073,-0.9942687048,0.1097474039,-0.5745557096,-0.7796849587,-0.9824498717,-0.5126189831,-0.9947465181,-0.9910578688,-0.9574608758,-0.9792101918,-0.1261276921,1,0.819917845,-0.1231625462,0.9979534033,-0.9568325312,-0.9981976422,-0.1179865914,-0.9179215108,0.9912731981,0.998596967,0.4812174686,-0.8576479265,0.8305235583,-0.1335113828,0.8742354327,-0.9142522745,0.9971275007,-0.9442793176,-0.9820686202,0.9635545014,1,0.026657553,-0.0219707057,0.0585432267,0.0012861736,-0.0012845215,0.0282958199,-0.0031269543,0.035131744,0.0151515152,0.0197014925,-0.0081967213,-0.0548996458,-0.0162398501,-0.0273015873,-0.8703213277,-0.8632493792,-0.8554094109,-0.8625600855,-0.8552142792,-0.8529331015,-0.8542019428,-0.8466636405,-0.8498711913,-0.8492251116,-0.8612315698,-0.8637770898,-0.8697034809,-0.8627106742,1
outputCount=10
weightIndex=0,200,580,1131
weights=-0.3608383546,-0.6500069774,-0.8472988115,-0.4278448802,0.3788537087,-0.1162619724,0.1757903623,0.7925036842,-0.0714050221,-0.1126085761,-0.5688372871,0.6789488071,0.2345415891,0.2465585157,-0.6956961838,0.487091527,0.4277547615,-0.4105079207,0.457711511,0.796934478,-0.5208008404,0.4547465279,0.0667919256,-0.0005875677,-0.3637480504,-0.6822839224,0.114754358,-0.7883309396,0.5632243511,0.064976312,2.4255115226,-0.4287812971,-0.4358392945,0.1793952422,0.8177440262,0.2137538886,-0.7419348289,-0.0662223291,-0.4602226246,1.0392879015,-0.6613780217,0.3775678772,0.8921014249,0.4680139105,-0.6199093459,1.7421024065,-0.551881364,-0.2460495066,0.1188952094,0.3250995049,-0.3929591246,-0.6910584036,0.9383576866,-0.3391716295,-0.5169258273,0.6263220208,0.5370140886,-0.2253953859,-0.0965216171,0.0993304356,0.5478967835,0.001277247,0.4013513696,-0.0222227402,0.8037214749,-0.3940926202,0.1425516805,-0.3612875391,-0.0123073428,0.2397088648,-0.2118351351,-0.5365393539,0.0357346231,0.9201573014,0.4565150592,-0.5867946911,0.3027783247,0.510350635,-0.231512798,-0.0045747727,0.3908970521,0.1272878983,0.3487612734,0.9305298984,0.7192875439,-0.4371061835,0.0426111665,-0.4950481317,-0.3649066751,0.1398706744,0.5912495634,0.3880418466,0.7997281658,0.2619666814,0.8446976391,-0.7445277933,0.3860175456,-0.6904920611,0.4706748244,-0.5740166816,-0.2551352924,0.5474016442,0.2593579952,0.4052877284,0.0289650972,-0.0919396876,0.7403397659,0.5234942886,0.0089582158,-0.168526616,-3.4818682739,1.856265924,-0.4211083782,0.6198404053,-0.6749279317,0.4602527083,0.9956124247,0.7426415423,0.8328708007,-0.4374017263,0.3210538535,0.034079688,0.5832145308,-0.2309641754,-0.4165006697,0.6658125517,0.558470334,0.0347935768,0.068787268,0.3335033174,0.8356199233,-0.6112489941,-0.5503905266,0.6823971735,-0.3207111727,0.4852619868,-0.2674697643,-1.0794804782,-0.6076294912,0.115425421,0.6386809051,0.7208400257,0.0066449081,0.2174506423,-0.0240597805,-0.1054011974,0.5874189201,0.0016657958,-0.056833658,0.2404499832,0.0060898644,-0.6063741633,-0.3466572135,-0.2416733291,0.6621776933,0.5478556403,-0.8045779435,-0.4935164199,-0.5668127363,-0.9547555946,0.5398109697,-0.1306170943,0.8202690504,0.064414456,-0.3100286065,0.4537585986,0.5307236179,0.4059097548,0.613006887,0.5422691838,-0.4738569775,0.116298725,-0.4876994613,0.5236972681,-0.348894925,-0.3619705845,-0.9574736775,0.4986998199,-0.4642114947,-0.3777027511,0.3004300918,0.4283802784,0.585361637,0.2678182406,0.4441661642,0.6778982258,0.4552652796,0.2164946368,-0.2761475158,0.2523728912,0.1922367657,0.8361376683,0.2067361783,-0.6631799684,0.3962014194,-0.416484908,0.458186929,0.4415501323,-0.0942115814,0.716238435,-0.2050590854,-0.539747795,0.6883892878,0.7701132878,0.6385226718,0.7736459325,-0.2857864105,0.3197512525,0.0968810944,0.7517836941,0.5139379303,-0.6017623085,0.0188506612,-0.9543257017,0.3695054568,0.3797209937,0.283367281,0.5694886135,-0.3373599917,-0.8329655976,-0.0797125602,-0.5005136144,-0.076574108,0.2963705632,0.3238597642,2.7056392324,-0.3035568124,0.874406207,1.217813042,0.1475040056,0.1879627659,0.1662636235,1.1923164081,0.9398985526,0.3770060624,0.5368749703,0.7809208485,0.1024978556,-0.6578472007,1.1090728882,-0.0367682616,0.235982507,0.0635040996,-0.3648707082,-0.2090353402,0.5033485249,-0.6412014222,-0.4127792268,0.4844451697,-0.2529619704,0.0753764685,0.0116874277,0.5572511353,-0.0303607031,-0.5245446155,0.6755556671,0.3062043288,-0.0235026595,0.5447802109,-0.3018961587,-0.6935157213,-0.9454349227,-0.0828734409,0.500852079,-0.2247992982,-0.339100823,-0.146235068,0.7368547421,0.2209501828,0.6362261481,-0.7612056114,-0.091694702,-0.3136077383,0.6860483851,-0.6055890797,-0.2039714154,-1.6135873819,0.2034464213,0.1453395309,-0.6818779609,0.8650871473,-0.0133452159,0.119593655,1.9503537728,-0.5663104885,-0.8700287304,-0.5630083993,0.7043743066,0.3238099211,-0.4582102002,-0.131583417,0.3458883477,-0.6298459072,-0.5569915518,-0.6604675183,0.3449009538,-0.1225956732,-0.6519433729,0.0614325423,0.8575459966,-0.2062625093,-0.5828697617,-0.1191517505,-0.9080075552,-0.681737631,-0.6369243857,0.4044235275,-0.3845928787,-1.128704454,0.1741132504,-0.4162173886,-0.2850696003,-0.6763650909,-0.855999884,0.5176542217,-0.1498571363,0.1614632043,0.7912200277,-0.1237963917,0.5387384411,-0.540197193,0.1160890939,-0.6486762238,0.30698424,0.4505453103,-0.3716371988,0.6767296057,-0.5197885257,0.4078068131,0.3806623141,-0.9334514719,-0.1591002205,-1.1900068681,-1.0473422668,-0.8425273641,0.6670796812,0.6467523175,0.3047785397,0.3421001442,-0.2084884209,-0.3205921636,-0.6625416008,0.831816543,-0.8762223787,0.0034319218,-0.0807363624,-0.1760187629,-0.2112961164,0.5014282733,-0.6437860071,-0.6572244138,-0.6151905752,0.2675804287,0.3570857836,-0.6503337626,-0.2569922938,-0.5496084632,-0.4033722773,-0.9563690818,-0.5842036513,0.0840219621,0.0811642545,-0.8807987845,-0.1455607674,0.8556126204,-0.0029855405,0.1018420576,0.4772617803,0.6275153845,-0.0156097471,0.4946406934,0.1148695446,-0.2650375537,-0.3220902245,-0.0883603108,-0.4330603863,0.0409144781,-0.4315783697,-0.8515545246,-1.0288702653,-0.8566879955,-0.5291739094,-0.2608343985,0.0126908794,0.8612979047,-0.1054428515,0.8354761468,0.6510376513,0.1764778906,0.3207932737,0.2704537722,0.872939242,-0.3932740215,0.1923611921,-0.1667293588,0.1709704434,-0.4598027,-0.406309312,0.714208704,-0.8998922023,0.4576940302,0.7888420758,0.2509772225,0.2723261369,-0.9249817854,-0.7819215284,0.4533416781,0.1666681816,-0.1130014552,-0.7024980157,-0.0384109648,-0.7703116287,0.2720470863,-0.6035253516,0.2313987293,0.7927651917,-0.8226231528,0.4883945389,-0.2009934479,-0.7477098618,-0.4082269345,0.5046415782,-0.0782867193,0.7273790207,-0.1018156952,-0.2253241022,0.1724020045,-0.3317144116,-0.0611016162,-0.2137461902,-0.3318113374,0.735967895,0.0876938576,0.6710962738,-0.3116282784,-0.8796922345,0.5027418393,-0.8121813376,-0.8770473685,0.2927816546,-0.0383635622,-0.0593963324,-0.9014518303,-1.3136496937,-0.4229193886,0.990381546,0.8374819895,-0.1153986474,-0.7809402141,0.5279893059,0.3487901322,-0.5394919085,0.6435404345,0.2680506663,0.715401023,-0.2785442309,0.4161848966,0.06680984,0.6142847034,-0.1958227711,0.5969918912,-0.3148147315,-0.1892867008,0.6873334677,0.7022640269,-0.4917122582,0.7753151241,0.8605776813,-0.081994867,-0.1563488477,0.0761947119,-0.6882249621,-0.0812878391,0.5493994623,0.1126708136,-0.4999287465,-0.0966767626,-0.3224660319,-0.1139295153,0.8598239751,-0.6100426542,-0.2074015552,-0.2850255474,-2.4595903589,0.8391661634,-0.823040979,0.2345041081,-0.6948448449,-0.3225889525,-0.5187422639,0.3632478432,-0.4296852555,-0.2378971751,0.1417895836,0.3293037251,0.1426117004,0.3048217972,0.7433273585,-0.262621752,-0.4052427572,0.1026983712,0.6464665591,-0.1776884843,0.4630823284,0.3201652246,0.3284561921,0.067165319,-0.2568631581,-0.4053826328,-0.2283950388,-0.4559907708,0.293392587,-0.6873821735,-0.9183553487,-1.1018700995,-0.6700139931,0.2157245474,0.336377588,0.407336643,-1.0190555717,0.8420399741,-0.3385008873,-0.3582230128,0.1059551317,0.0293959072,-0.4320103018,0.4697895061,0.0039698001,0.0389418378,-0.1508677809,-0.243328146,-0.0933677895,-0.7072213586,-1.2108017291,-0.5098177446,-0.3469053166,0.1923530549,0.796099855,0.5867595723,-0.6374837902,-0.1374664223,0.2759403822,-0.0585026843,0.0899226524,0.0820587019,-0.1410991246,0.2734159381,0.6375652347,-0.3599705325,-0.0612244232,-0.3338483751,-0.6483870778,-0.5089569958,-0.5065201507,-0.7851912531,-0.8363321023,-0.4728016717,0.8892979671,0.6198492566,-1.3409650049,0.7022776802,0.5048248401,0.9921170991,0.2749508776,0.0563614872,0.869724479,-0.0856423495,0.204371706,0.8031832018,0.085193038,0.0474313,-0.4163010514,0.4304707033,-0.9294499166,0.7932615564,-0.7232736102,-0.1578195939,-0.0839877798,1.1812406959,-0.9996224241,0.3435705973,-0.5905622629,1.0056578402,1.378073351,1.6174489273,0.6327601464,1.1228744225,-0.7348367467,0.5478602258,0.5580714366,2.5593363077,0.1993803816,-0.2568725511,0.0692863535,-0.1913634002,0.5167185179,-0.6475541595,-0.5662505618,-0.1414956396,-0.3712197322,0.1932037271,-0.0020226798,-0.5148708589,0.902567343,-0.6680147488,-0.5384201941,-0.4810395858,0.1168533283,-0.9685497921,-0.128944951,-0.1525432466,1.3797805412,0.4255026992,0.5656357833,1.3486900131,-0.2566074181,1.352019597,0.2290570784,0.9654765953,0.1614424343,-1.0944721152,-1.2740932053,-0.2151906495,0.5915831707,-1.0419929118,0.5762320119,0.0321371388,0.2065388357,0.0761526114,-0.002172003,-0.2552613146,-0.7187536946,-0.5612371209,-0.6958475518,0.7132413947,0.3930355572,0.0068527994,-0.9619051931,0.2131487232,-1.2444549311,0.2997737731,0.6706778752,1.4420808723,0.752412107,0.6700279785,-2.0521841425,0.1944776938,1.2305983669,4.2600302041,0.0706305594,-0.5336490864,-0.2339894259,-0.8188313358,-0.5148314203,-0.6508934981,-0.4493313177,-0.3028443366,-0.0889074724,-0.3554128039,0.9725278326,-0.4903805483,-0.6796235124,-0.3583609444,0.4140314138,-0.49519616,0.0363527667,0.1810427514,-0.2125453441,0.5742667347,-0.2620351612,-0.0409723186,0.0685035343,0.0380206925,-0.4270001226,1.4249067001,0.6828090884,0.0568346132,-1.3764806353,1.1029138772,1.2941772368,0.2631260879,-0.0070431504,0.6533398569,0.6997116934,0.2551969402,-0.5468966057,0.3522884426,0.6609135468,-0.5959208785,0.1552779935,0.7492523721,0.2340949371,-0.8303215886,0.0586964944,-0.0302440701,-0.3127954658,-0.3740471154,0.5108240652,-1.6761163766,-2.1220274485,-2.4656828317,-2.1246568331,-2.3453267124,0.6330596824,-1.5236740321,-0.7948626735,-3.7741175757,-0.8431578982,-0.3686063596,-0.0568029002,-0.6096707017,0.8108528226,-0.0958733924,0.6930792762,-0.7260594934,0.6494384278,-0.2124738686,1.1105315723,0.5930706924,-0.5593873066,0.0765354584,0.6012857193,0.926043557,-0.0679215692,-0.6640629743,-0.2192665006,0.0909570793,-0.3207159153,-0.4567541419,-0.1704330226,0.1349328845,-0.9880172854,-0.8382515486,-1.0191385128,-0.8917879221,-0.5872259455,0.4601171364,0.3970985822,-0.5457782652,0.1370233785,0.1064041602,-0.1746626532,0.5045119465,-0.5049114456,-0.3635663474,-0.0580840668,-0.0883577057,0.5044518772,0.2907264562,-0.8834714012,-0.0515566763,0.6248910524,0.5154588755,0.4649046346,-0.0387966646,0.0545643768,-0.3155295528,-0.9834163831,-1.8715125355,-1.7662297936,-1.7289420998,-0.6352170438,-0.5539449936,-0.8510744777,-1.8733324503,-1.2041924371,-0.8458727832,-0.4670228386,-0.197909218,-0.1651725594,-0.4075187325,0.2534689325,-0.6010861072,0.9093055966,0.1409847526,0.2721225615,-0.3121972547,-0.0205853287,-0.7102670883,0.6506028099,0.7984980049,0.3650271123,-0.7276156204,0.494197693,-0.0861482257,0.6125521569,0.9682579545,0.9747242098,0.8836303575,1.3972653003,-1.8897221308,0.1301388848,-0.2256080639,3.4941872698,0.0311902893,-1.024218191,-0.4064238065,0.3797134648,-1.0264416995,-0.2278419508,-0.2600208676,0.2036056135,-0.6692623537,-0.3074876178,-0.5116325503,0.7444931536,0.0352320923,-0.8135930193,0.3735750606,-0.4097507565,0.0797834755,0.6447710509,0.3557695134,-0.4468865798,2.3858310792,2.2845309071,2.3104637251,2.3320256227,2.0673174067,-0.3484070344,1.7919660506,1.7903157486,4.1553154898,0.3291816984,-0.0280317654,0.4813778351,0.3275812719,-0.6051344601,-0.2993876785,-0.3267331627,0.5771214782,-0.6493998452,0.5129284369,-0.5716126334,-0.5313311481,-0.2999484044,-0.312833526,0.0757126522,-0.425683755,-0.7703414603,0.6004805614,0.368855964,-0.3429692643,1.6015398399,1.1665087284,0.451445288,0.7343076668,1.7814433836,2.6343933985,2.2827021138,2.311991524,1.1802686588,-1.0162243199,-1.5880489095,0.4546055688,0.3033717537,-0.2082690918,0.0449782648,0.1391745932,0.9836433736,0.5245273564,0.7596988065,-0.757711934,-0.4739090514,-0.4852121857,-0.9050368016,-0.1005400628,-0.7002225216,-0.1306705811,-0.6989065802,-0.0321011289,0.3821381839,-0.9110293309,-0.6769453883,-1.0581568759,-0.978846887,0.0080667559,0.8974025479,0.0567729996,-0.6616750254,-2.8850483008,-1.1623059716,-0.1637671017,0.0270876173,0.2535150698,0.1061559072,0.6375183367,-0.320561478,1.1409211105,0.0597113153,-0.1759330172,-0.1207568836,-0.6498630198,-0.6542188032,0.8549436172,0.4802476148,-0.563144595,0.766446996,0.2666677913,0.2108327081,-0.2884111467,-0.071857681,0.8769327581,1.2040199959,-0.2742652125,0.9119004726,-1.0464684939,0.057986343,-0.3492554082,1.1816832996,-0.5700081958,-0.1613610366,0.0889598144,-0.6947004353,0.3319819437,0.1802785065,-1.1748532514,-0.1961104288,0.5544289439,-0.9067025658,0.5425182583,-0.6460686698,-0.4481913898,0.7596222501,0.6989072072,-0.9900795993,0.3298370398,-0.2214330148,0.3717282771,-0.0677854801,-1.5985990711,-0.396150728,-0.6854342939,-1.6027244377,1.7469028202,-0.3669868724,0.901686551,-0.0033275003,-0.0289985177,0.1166874626,-0.1776398325,0.0436181411,-0.7337187279,0.3756686004,0.7629882819,-0.5314210103,0.6996734284,-0.2776803729,-0.3683344538,0.8276996472,-0.3543669366,0.8418306828,-0.2867594753,-0.8553262503,0.7108110183,-0.2363124211,0.4720621943,-0.4734984028,0.0247774842,0.1653428816,-0.2885751242,0.3735962799,0.4544798951,-0.458588811,0.3045088643,-0.7662683052,0.309882983,0.1737295086,0.2678655335,-0.4699259976,-0.5881664204,0.3259872744,0.3632818682,-0.9369532169,0.2293097769,0.511745256,0.172840548,-0.5935625265,0.8675315492,-0.1380467656,-0.6847546189,0.1638200858,-0.2665332058,0.7738851828,-0.522982618,1.56815049,-0.3631990846,1.12965545,-0.8057544228,-0.9591014625,-1.9361604661,-2.1700118403,-2.0635777169,0.7782661471,-0.7491658485,-0.9467292087,-3.1510578262,0.2663930833,0.2581692389,0.4288831317,-0.1610182418,0.4859883643,0.2177778595,-0.5262480538,-0.0739669984,0.6937074606,0.9191202084,0.2221308815,0.6959625046,0.7769171751,1.0834074046,-0.4476483212,-0.9960136453,-0.2014157881,0.8609172685,-0.0135622847,-1.2083147381,0.3994004118,0.2412910452,0.6450633855,-0.1268227127,-0.3617897406,-2.0082595457,-1.7573308837,-1.969006511,-0.2617387419,-1.8059082202,-1.4383732725,-0.7256370172,0.0296813091,-0.749955117,-0.83699115,-0.603357272,-0.9280228698,0.6653501589,-0.6823618534,-0.5558979693,-0.6597250838,-0.2114656465,0.7500198525,0.6364112404,0.3199014274,0.1832718506,0.9711260325,0.0007257586,0.6304572399,-0.9421524869,-1.4534779057,-2.0743174622,-0.9813382599,-1.0490421636,0.5798945187,-0.0002372158,-0.1179153772,-1.875064076,-0.483888473,0.1041692206,0.5344310026,-0.2650671049,-0.2724344197,0.3715166712,0.895216542,0.0029197553,0.1892574096,0.165128192,0.4927601308,0.2246582172,-0.4829416395,0.806011638,0.3960286538,0.5677728536,-0.9110337591,0.1439988175,0.0842731064,1.2501324969,0.0382360382,0.383834553,0.2479562079,0.4586727904,0.354100913,1.5600398041,1.6330696788,1.1032202543,0.1377773288,1.6905004684,1.7299510831,0.8570628395,-0.0437275347,0.9805997524,0.8597616056,0.7595396561,-0.2558733698,-0.3230246684,0.6265607406,0.008722435,0.6961937379,0.4338333654,-0.1877655837,-0.6906606076,-0.015244387,-0.5542431728,-0.3398997383,-0.0701196446,-0.9695175991,0.1370483925,0.6772925133,2.0144756467,1.4606796494,0.6904357898,-0.6639425354,0.8822495463,1.7427839718,3.9352174592,1.263191879,1.2081133822,0.4692583932,-1.0863301817,-0.094722985,-0.0063210663,-0.4741748989,-0.3803068762,0.2077147121,-0.1080438078,0.7132777906,-0.3838394145,-0.8838747546,0.4552603722,0.4192900538,-0.5839816109,-0.6223778343,-0.407392581
biasActivation=0,1,1,1
[BASIC:ACTIVATION]
"org.encog.engine.network.activation.ActivationTANH"
"org.encog.engine.network.activation.ActivationTANH"
"org.encog.engine.network.activation.ActivationTANH"
"org.encog.engine.network.activation.ActivationLinear"
